svm_type csovo_svc
kernel_type rbf
gamma 0.2
nr_class 3
total_sv 283
rho 0.058836 -0.00590483 -0.458276
label 1 2 3
nr_sv 89 142 52
SV
0.7460956035921158 0.7003422459548134 1:113 2:9.9 3:3.1 4:2 5:5.9 
1.026186456475233 0.963275637229617 1:127 2:12.9 3:2.4 4:1.4 5:0.6 
0.1992815224220451 0.2505996057297884 1:107 2:13 3:1.1 4:0.9 5:3.1 
1.437581455438282 1.428542303400138 1:106 2:4.2 3:1.2 4:1.6 5:1.4 
0.009727028422671809 0.01089495848582149 1:110 2:11.3 3:2.3 4:0.9 5:3.3 
0.7016421638798063 0.6598578903889866 1:112 2:8.1 3:1.9 4:3.7 5:2 
0.2986341053240351 0.2799524292470824 1:122 2:9.7 3:1.6 4:0.9 5:2.2 
0.1513752578274254 0.1381677203026661 1:109 2:8.4 3:2.1 4:1.1 5:3.6 
0.08356170585327119 0.07878134097702372 1:119 2:10.6 3:2.1 4:1.3 5:1.1 
0.3279714623886751 0.3082657542353693 1:115 2:7.1 3:1.3 4:1.3 5:2 
0.1492842519416196 0.1432643817755993 1:101 2:7.8 3:1.2 4:1 5:1.7 
0.6965832832570165 0.6373996142860123 1:103 2:10.1 3:1.3 4:0.7 5:0.1 
0.5155040584001598 0.4955311114988385 1:109 2:10.4 3:1.9 4:0.4 5:-0.1 
0.05178841435673015 0.03337259862324862 1:102 2:7.6 3:1.8 4:2 5:2.5 
0.6484363505837472 0.6088388559421531 1:121 2:10.1 3:1.7 4:1.3 5:0.1 
0.4762282410099006 0.444614800891829 1:100 2:6.1 3:2.4 4:1.8 5:3.8 
0.3998244440942092 0.3757519109088001 1:116 2:10.1 3:2.2 4:1.6 5:0.8 
0.2074451029564002 0.1941767226353707 1:120 2:8.4 3:1.1 4:1.4 5:1.4 
0.427344442753164 0.401157279265401 1:110 2:7.8 3:1.9 4:2.1 5:6.4 
0.08835212657144582 0.08373108353399035 1:117 2:12.2 3:1.9 4:1.2 5:3.9 
0.5380316152624256 0.5059109591300698 1:130 2:9.5 3:1.7 4:0.4 5:3.2 
0.7605443082329819 0.7020215103108151 1:100 2:10.5 3:2.4 4:0.9 5:1.9 
0.1563117626488414 0.1475286127504348 1:121 2:10.1 3:2.4 4:0.8 5:3 
0.2689709399670384 0.2465079189428037 1:110 2:9.2 3:1.6 4:1.5 5:0.3 
0.8734965587011233 0.8201792897153973 1:123 2:8.1 3:2.3 4:1 5:5.1 
0.1044557076789221 0.1081753632274156 1:107 2:8.4 3:1.8 4:1.5 5:0.8 
0.5265883818964462 0.4905818353313652 1:109 2:10 3:1.3 4:1.8 5:4.3 
0.4052521201525031 0.381183784779665 1:120 2:6.8 3:1.9 4:1.3 5:1.9 
0.3895070390743754 0.3673526375519295 1:100 2:9.5 3:2.5 4:1.3 5:-0.2 
1.067390835520735 1.003411627356787 1:118 2:8.1 3:1.9 4:1.5 5:13.7 
0.8798863112470067 0.8227186919766737 1:103 2:12.2 3:1.2 4:1.3 5:2.7 
0.1873345676679545 0.1757031373045859 1:115 2:8.1 3:1.7 4:0.6 5:2.2 
0.0296605154301774 0.02652790779273146 1:119 2:8 3:2 4:0.6 5:3.2 
0.4408783935623198 0.4394282452441438 1:106 2:9.4 3:1.7 4:0.9 5:3.1 
0.9533296777312817 0.8897189065328475 1:93 2:8.9 3:1.5 4:0.8 5:2.7 
1.008260931762233 0.7676615148663594 1:106 2:11.3 3:1.8 4:0.9 5:1 
0.1845479433934679 0.17422138601919 1:101 2:7.1 3:2.2 4:0.8 5:2.2 
0.6028197480025638 0.5657699204717196 1:117 2:9.2 3:1.9 4:1.5 5:6.8 
0.01419634380727912 0 1:106 2:6.7 3:1.5 4:1.2 5:3.9 
0.3504383242701236 0.3288125431622997 1:118 2:10.5 3:2.1 4:0.7 5:3.5 
0.177390721339751 0.1657427006749998 1:113 2:11.1 3:1.7 4:0.8 5:2.3 
1.279713891903147 1.286139384425219 1:104 2:6.3 3:2 4:1.2 5:4 
0.9956335814331821 0.9345709114204663 1:133 2:9.7 3:2.9 4:0.8 5:1.9 
0.331951944244431 0.3106661959652495 1:126 2:9.4 3:2.3 4:1 5:4 
0.2501384034650829 0.2355043676293937 1:113 2:8.5 3:1.8 4:0.8 5:0.5 
0.7042468530814565 0.6610680579130097 1:119 2:12.9 3:1.5 4:1.3 5:3.6 
0.7815509001297709 0.7338429131853351 1:117 2:6.7 3:2.2 4:1.8 5:6.7 
1.010736240546927 0.9507388864886963 1:115 2:15.3 3:2.3 4:2 5:2 
0.933140491086663 0.8772817035016119 1:91 2:8 3:1.7 4:2.1 5:4.6 
0.07779054293108791 0.08130903791133573 1:103 2:8.5 3:1.8 4:1.9 5:1.1 
0.3698051180002052 0.3602753568229672 1:98 2:9.1 3:1.4 4:1.9 5:-0.3 
0.4963470677921665 0.462966375034677 1:107 2:13 3:1.5 4:2.8 5:1.7 
0.3733047916916803 0.3503855065338692 1:119 2:11.4 3:2.3 4:2.2 5:1.6 
0.6866826563724512 0.6443253623993563 1:122 2:11.8 3:2.7 4:1.7 5:2.3 
0.7253015576549787 0.6791403370208359 1:105 2:8.1 3:2 4:1.9 5:-0.5 
0.5342607691067617 0.5009766632882124 1:112 2:5.9 3:1.7 4:2 5:1.3 
0.9079117318688289 0.8476866384082941 1:98 2:8.6 3:1.6 4:1.6 5:6 
0.6251479733210122 0.5850624147251691 1:109 2:12.4 3:2.3 4:1.7 5:0.8 
0.584177071435881 0.5485041054601701 1:114 2:11.1 3:2.4 4:2 5:-0.3 
0.6397379529972114 0.6015245536552674 1:120 2:7.1 3:1.2 4:1.5 5:4.3 
0.2319269970122808 0.2152844894279509 1:108 2:8.7 3:1.2 4:2.2 5:2.5 
0.387728357705885 0.3634919496782175 1:116 2:11.9 3:1.8 4:1.9 5:1.5 
0.3386827482157352 0.3188149647605721 1:113 2:11.5 3:1.5 4:1.9 5:2.9 
0.5400019672925321 0.4932009891069007 1:105 2:7 3:1.5 4:2.7 5:4.3 
0.2229087981866704 0.208682023328828 1:114 2:8.1 3:1.6 4:1.6 5:0.5 
0.6927929814125103 0.5672355850095432 1:107 2:13.8 3:1.5 4:1 5:1.9 
0.4890142829944423 0.4588867354902362 1:116 2:11.5 3:1.8 4:1.4 5:5.4 
0.483575339378412 0.4551997230183901 1:110 2:7 3:1 4:1.6 5:4.3 
0.1398585735100149 0.1298189235312977 1:112 2:6.8 3:1.7 4:1.4 5:3.3 
0.04770683139677558 0.04641210883160592 1:111 2:8.5 3:1.6 4:1.1 5:3.9 
0.747914599819241 0.7022675744318269 1:111 2:8.5 3:1.6 4:1.2 5:7.7 
0.8186982728554876 0.7229785912706813 1:98 2:10.4 3:1.6 4:2.3 5:-0.7 
0.3232742050732357 0.3039595438302234 1:117 2:7.8 3:2 4:1 5:3.9 
0.4222254071108155 0.3964682631955502 1:115 2:10.6 3:0.8 4:2.1 5:4.6 
0.6488326776123052 0.6083564939784338 1:130 2:10 3:1.6 4:0.9 5:4.6 
1.563783974694352 1.541051151055836 1:101 2:6.7 3:1.3 4:1 5:5.7 
0.5695742132942256 0.5436656609597025 1:110 2:6.3 3:1 4:0.8 5:1 
0.4537103047336488 0.4264033254815336 1:112 2:10.6 3:1.6 4:0.9 5:-0.1 
0.610608656456506 0.5733138345673651 1:118 2:6.5 3:1.2 4:1.2 5:1.7 
0 0.002548910911359444 1:109 2:9.2 3:1.8 4:1.1 5:4.4 
0.9589906946696471 0.9002710754531783 1:127 2:7.7 3:1.8 4:1.9 5:6.4 
0.5598071413215719 0.5396547388675534 1:108 2:6.5 3:1 4:0.9 5:1.5 
0.9091851848267708 0.8523812554690247 1:98 2:5.7 3:0.4 4:1.3 5:2.8 
0.04115670742421795 0.03809598401427999 1:118 2:12.2 3:1.5 4:1 5:2.3 
0.6653581333660702 0.6252222893795768 1:126 2:10.4 3:1.7 4:1.2 5:3.5 
0.5674560779598556 0.5326583306082275 1:114 2:7.5 3:1.1 4:1.6 5:4.4 
0.6906563764269014 0.6467639835494807 1:111 2:11.9 3:2.3 4:0.9 5:3.8 
0.3494901651463283 0.3088761866803468 1:104 2:6.1 3:1.8 4:0.5 5:0.8 
0.4387857046534772 0.4178110150315718 1:102 2:6.6 3:1.2 4:1.4 5:1.3 
0 0.08022873292206067 1:107 2:10.1 3:2.2 4:0.9 5:2.7 
0 0.3816730794481859 1:113 2:9.9 3:3.1 4:2 5:5.9 
0 0.5248247132695281 1:127 2:12.9 3:2.4 4:1.4 5:0.6 
0 0.3135775012462687 1:107 2:13 3:1.1 4:0.9 5:3.1 
0 0.9301599999999999 1:106 2:4.2 3:1.2 4:1.6 5:1.4 
0 0.01984428414189041 1:110 2:11.3 3:2.3 4:0.9 5:3.3 
0 0.3597801203391334 1:112 2:8.1 3:1.9 4:3.7 5:2 
0 0.1527067866599293 1:122 2:9.7 3:1.6 4:0.9 5:2.2 
0 0.03903196112065142 1:109 2:8.4 3:2.1 4:1.1 5:3.6 
0 0.04251063508857435 1:119 2:10.6 3:2.1 4:1.3 5:1.1 
0 0.1665607986890993 1:115 2:7.1 3:1.3 4:1.3 5:2 
0 0.0806522730469697 1:101 2:7.8 3:1.2 4:1 5:1.7 
0 0.2873758599476295 1:103 2:10.1 3:1.3 4:0.7 5:0.1 
0 0.3071905548780057 1:109 2:10.4 3:1.9 4:0.4 5:-0.1 
0 0.005572214637771763 1:102 2:7.6 3:1.8 4:2 5:2.5 
0 0.3319748762449984 1:121 2:10.1 3:1.7 4:1.3 5:0.1 
0 0.3133791930726125 1:100 2:6.1 3:2.4 4:1.8 5:3.8 
0 0.2036537187610422 1:116 2:10.1 3:2.2 4:1.6 5:0.8 
0 0.1065523749422139 1:120 2:8.4 3:1.1 4:1.4 5:1.4 
0 0.2189814430495741 1:110 2:7.8 3:1.9 4:2.1 5:6.4 
0 0.04445256802956601 1:117 2:12.2 3:1.9 4:1.2 5:3.9 
0 0.1106413110184184 1:106 2:9.4 3:1.5 4:0.8 5:0.5 
0 0.2751118580178109 1:130 2:9.5 3:1.7 4:0.4 5:3.2 
0 0.3250843816071178 1:100 2:10.5 3:2.4 4:0.9 5:1.9 
0 0.0799772335702913 1:121 2:10.1 3:2.4 4:0.8 5:3 
0 0.1235624331160801 1:110 2:9.2 3:1.6 4:1.5 5:0.3 
0 0.4472706061676869 1:123 2:8.1 3:2.3 4:1 5:5.1 
0 0.2463683523431264 1:109 2:10 3:1.3 4:1.8 5:4.3 
0 0.2071111197402475 1:120 2:6.8 3:1.9 4:1.3 5:1.9 
0 0.2026018239057884 1:100 2:9.5 3:2.5 4:1.3 5:-0.2 
0 0.5552464948085732 1:118 2:8.1 3:1.9 4:1.5 5:13.7 
0 0.4308527296286072 1:103 2:12.2 3:1.2 4:1.3 5:2.7 
0 0.09694584955423022 1:115 2:8.1 3:1.7 4:0.6 5:2.2 
0 0.01454211851935188 1:119 2:8 3:2 4:0.6 5:3.2 
0 0.2083733754934859 1:106 2:9.4 3:1.7 4:0.9 5:3.1 
0 0.4685947586290947 1:93 2:8.9 3:1.5 4:0.8 5:2.7 
0 0.07854167331063183 1:101 2:7.1 3:2.2 4:0.8 5:2.2 
0 0.3077540408466466 1:117 2:9.2 3:1.9 4:1.5 5:6.8 
0 0.1799586352124585 1:118 2:10.5 3:2.1 4:0.7 5:3.5 
0 0.0897858534378729 1:113 2:11.1 3:1.7 4:0.8 5:2.3 
0 0.9301599999999999 1:104 2:6.3 3:2 4:1.2 5:4 
0 0.5092285404294596 1:133 2:9.7 3:2.9 4:0.8 5:1.9 
0 0.1690954740965976 1:126 2:9.4 3:2.3 4:1 5:4 
0 0.1265015915339517 1:113 2:8.5 3:1.8 4:0.8 5:0.5 
0 0.3610907182584919 1:119 2:12.9 3:1.5 4:1.3 5:3.6 
0 0.3999843816047463 1:117 2:6.7 3:2.2 4:1.8 5:6.7 
0 0.5090026414436079 1:115 2:15.3 3:2.3 4:2 5:2 
0 0.4803572674905585 1:91 2:8 3:1.7 4:2.1 5:4.6 
0 0.04699866950516339 1:103 2:8.5 3:1.8 4:1.9 5:1.1 
0 0.2662113221320473 1:98 2:9.1 3:1.4 4:1.9 5:-0.3 
0 0.2672921740967628 1:107 2:13 3:1.5 4:2.8 5:1.7 
0 0.1907064072027772 1:119 2:11.4 3:2.3 4:2.2 5:1.6 
0 0.3515969988840039 1:122 2:11.8 3:2.7 4:1.7 5:2.3 
0 0.3530782786407716 1:105 2:8.1 3:2 4:1.9 5:-0.5 
0 0.2742342753761611 1:112 2:5.9 3:1.7 4:2 5:1.3 
0 0.4562464600229478 1:98 2:8.6 3:1.6 4:1.6 5:6 
0 0.2126562220386758 1:109 2:12.4 3:2.3 4:1.7 5:0.8 
0 0.2985703207404196 1:114 2:11.1 3:2.4 4:2 5:-0.3 
0 0.3277199781289364 1:120 2:7.1 3:1.2 4:1.5 5:4.3 
0 0.1123824305396912 1:108 2:8.7 3:1.2 4:2.2 5:2.5 
0 0.1996573091897365 1:116 2:11.9 3:1.8 4:1.9 5:1.5 
0 0.1746654444017548 1:113 2:11.5 3:1.5 4:1.9 5:2.9 
0 0.2749798345747593 1:105 2:7 3:1.5 4:2.7 5:4.3 
0 0.115817477534835 1:114 2:8.1 3:1.6 4:1.6 5:0.5 
0 0.06375630943713101 1:105 2:11.1 3:1.1 4:0.8 5:1.2 
0 0.04125117388938796 1:107 2:13.8 3:1.5 4:1 5:1.9 
0 0.2511254326253496 1:116 2:11.5 3:1.8 4:1.4 5:5.4 
0 0.01613578233588521 1:102 2:9.5 3:1.4 4:1.1 5:1.6 
0 0.2515040358737777 1:110 2:7 3:1 4:1.6 5:4.3 
0 0.06546718440197433 1:112 2:6.8 3:1.7 4:1.4 5:3.3 
0 0.03190403849467525 1:111 2:8.5 3:1.6 4:1.1 5:3.9 
0 0.3820904132516559 1:111 2:8.5 3:1.6 4:1.2 5:7.7 
0 0.2136035320074916 1:98 2:10.4 3:1.6 4:2.3 5:-0.7 
0 0.1652502613240245 1:117 2:7.8 3:2 4:1 5:3.9 
0 0.2154165838784642 1:115 2:10.6 3:0.8 4:2.1 5:4.6 
0 0.3322120081276981 1:130 2:10 3:1.6 4:0.9 5:4.6 
0 0.9301599999999999 1:101 2:6.7 3:1.3 4:1 5:5.7 
0 0.3220762083202351 1:110 2:6.3 3:1 4:0.8 5:1 
0 0.2306049683783051 1:112 2:10.6 3:1.6 4:0.9 5:-0.1 
0 0.3130027279760603 1:118 2:6.5 3:1.2 4:1.2 5:1.7 
0 0.02503402498424557 1:109 2:9.2 3:1.8 4:1.1 5:4.4 
0 0.4910816465496162 1:127 2:7.7 3:1.8 4:1.9 5:6.4 
0 0.4155064527356599 1:108 2:6.5 3:1 4:0.9 5:1.5 
0 0.454151056006916 1:98 2:5.7 3:0.4 4:1.3 5:2.8 
0 0.02051536802749009 1:118 2:12.2 3:1.5 4:1 5:2.3 
0 0.3409458720769437 1:126 2:10.4 3:1.7 4:1.2 5:3.5 
0 0.291101983671977 1:114 2:7.5 3:1.1 4:1.6 5:4.4 
0 0.3446792163459433 1:111 2:11.9 3:2.3 4:0.9 5:3.8 
0 0.1312792435046103 1:104 2:6.1 3:1.8 4:0.5 5:0.8 
0 0.249519036794329 1:102 2:6.6 3:1.2 4:1.4 5:1.3 
-0.9364414521268045 0.5390270592710286 1:139 2:16.4 3:3.8 4:1.1 5:-0.2 
-0.4571315287404023 0.33816349273533 1:111 2:16 3:2.1 4:0.9 5:-0.1 
-0.9412940703737451 0.5412702937241085 1:65 2:25.3 3:5.8 4:1.3 5:0.2 
-0.5644107931422331 0.3237141110017391 1:88 2:24.1 3:5.5 4:0.8 5:0.1 
-0.936773645801334 0.5395604496896564 1:65 2:18.2 3:10 4:1.3 5:0.1 
-0.9360715702885096 0.539016050777967 1:134 2:16.4 3:4.8 4:0.6 5:0.1 
-0.9328911200907818 0.5364780741182492 1:110 2:20.3 3:3.7 4:0.6 5:0.2 
-1.031963313790927 0.4765837123362821 1:95 2:11.1 3:2.7 4:1.6 5:-0.3 
-0.4615441563202364 0.2658776270920712 1:89 2:14.3 3:4.1 4:0.5 5:0.2 
-0.3842939953394978 0.2225214894663288 1:89 2:23.8 3:5.4 4:0.5 5:0.1 
-0.7544250853710983 0.4338107035865973 1:88 2:12.9 3:2.7 4:0.1 5:0.2 
-0.9346021827964249 0.5327880400007554 1:105 2:17.4 3:1.6 4:0.3 5:0.4 
-0.7067504479755943 0.4069324505444481 1:89 2:20.1 3:7.3 4:1.1 5:-0.2 
-0.9071205082921773 0.3878214755494367 1:99 2:13 3:3.6 4:0.7 5:-0.1 
-0.3697492822420746 0.2120262256923344 1:89 2:21.8 3:7.1 4:0.7 5:-0.1 
-0.9367775602401701 0.5391391777055263 1:68 2:14.7 3:7.8 4:0.6 5:-0.2 
-0.2048239379240275 0.1498328188723161 1:97 2:14.2 3:3.6 4:1.5 5:0.3 
-0.9234949768612365 0.5313072612737875 1:84 2:18.5 3:4.4 4:1.1 5:-0.3 
-0.7767804050074079 0.4460110251278135 1:98 2:16.7 3:4.3 4:1.7 5:0.2 
-0.9404596300097361 0.5414994257404173 1:94 2:20.5 3:1.8 4:1.4 5:-0.5 
-0.9411740432502367 0.5413385259454172 1:76 2:25.3 3:4.5 4:1.2 5:-0.1 
-0.718349574015321 0.2579276232791664 1:110 2:15.2 3:1.9 4:0.7 5:-0.2 
-0.9412233742867432 0.5417621166084443 1:144 2:22.3 3:3.3 4:1.3 5:0.6 
-1.046574661508362 0.2730194008099742 1:105 2:12 3:3.3 4:1.1 5:0 
-0.7690183056184295 0.4425953632250413 1:88 2:16.5 3:4.9 4:0.8 5:0.1 
-0.6630133382490999 0.376661837864213 1:97 2:15.1 3:1.8 4:1.2 5:-0.2 
-0.9540603405503292 0.2584087442443752 1:106 2:13.4 3:3 4:1.1 5:0 
-0.9365802287532736 0.5393615508460435 1:79 2:19 3:5.5 4:0.9 5:0.3 
-0.933165008915732 -1.445474273914113 1:125 2:2.3 3:0.9 4:16.5 5:9.5 
-0.9276344678588528 -1.438106126125378 1:120 2:6.8 3:2.1 4:10.4 5:38.6 
-1.565078999999999 -1.900530056789919 1:108 2:3.5 3:0.6 4:1.7 5:1.4 
-0.8951867801880216 -1.387810658155262 1:129 2:1.5 3:0.6 4:12.5 5:2.9 
-0.937662088980298 -1.453060245650121 1:118 2:3.6 3:1.5 4:11.6 5:48.8 
-0.9412045702089735 -1.458160601918527 1:120 2:1.9 3:0.7 4:18.5 5:24 
-0.9416555649787296 -1.458559854415372 1:119 2:0.8 3:0.7 4:56.4 5:21.6 
-0.9304990909776414 -1.442425452139151 1:123 2:5.6 3:1.1 4:13.7 5:56.3 
-0.9503385819885238 -1.461596529110633 1:115 2:6.3 3:1.2 4:4.7 5:14.4 
-0.9325378618172955 -1.445376587150443 1:126 2:0.5 3:0.2 4:12.2 5:8.8 
-0.9274044294984169 -1.43676452560742 1:121 2:4.7 3:1.8 4:11.2 5:53 
-0.8871347601817383 -1.374335696890811 1:131 2:2.7 3:0.8 4:9.9 5:4.7 
-0.9234085005696776 -1.430317898797783 1:134 2:2 3:0.5 4:12.2 5:2.2 
-0.9365692800703519 -1.451197242677361 1:141 2:2.5 3:1.3 4:8.5 5:7.5 
-0.9401322095881366 -1.456594836269379 1:113 2:5.1 3:0.7 4:5.8 5:19.6 
-0.9409110178907757 -1.457886970344484 1:136 2:1.4 3:0.3 4:32.6 5:8.4 
-0.941223273039851 -1.458527377728535 1:120 2:3.4 3:1.8 4:7.5 5:21.5 
-0.9411149042863931 -1.458415589513054 1:125 2:3.7 3:1.1 4:8.5 5:25.9 
-0.9407198776062848 -1.458563478661642 1:112 2:2.6 3:0.7 4:41 5:19 
-0.9407347461072982 -1.458622500555565 1:134 2:1.9 3:0.6 4:18.4 5:8.2 
-0.9280919712499539 -1.437954938355017 1:119 2:5.1 3:1.1 4:7 5:40.8 
-0.9364413839563503 -1.450664247497834 1:139 2:4.2 3:0.7 4:4.3 5:6.3 
-1.565078999999999 -1.646236586318831 1:103 2:5.1 3:1.4 4:1.2 5:5 
-1.071703239584836 -1.223890969892165 1:102 2:5.3 3:1.4 4:1.3 5:6.7 
-0.6666660000000002 0 1:139 2:16.4 3:3.8 4:1.1 5:-0.2 
-0.5592849163858575 0 1:111 2:16 3:2.1 4:0.9 5:-0.1 
-0.6666660000000002 0 1:65 2:25.3 3:5.8 4:1.3 5:0.2 
-0.6045862516724073 0 1:88 2:24.1 3:5.5 4:0.8 5:0.1 
-0.6666660000000002 0 1:65 2:18.2 3:10 4:1.3 5:0.1 
-0.6666660000000002 0 1:134 2:16.4 3:4.8 4:0.6 5:0.1 
-0.6666660000000002 0 1:110 2:20.3 3:3.7 4:0.6 5:0.2 
-0.6666660000000002 0 1:95 2:11.1 3:2.7 4:1.6 5:-0.3 
-0.5854948646331002 0 1:89 2:14.3 3:4.1 4:0.5 5:0.2 
-0.4000795597674012 0 1:89 2:23.8 3:5.4 4:0.5 5:0.1 
-0.6666660000000002 0 1:88 2:12.9 3:2.7 4:0.1 5:0.2 
-0.6666660000000002 0 1:105 2:17.4 3:1.6 4:0.3 5:0.4 
-0.6666660000000002 0 1:89 2:20.1 3:7.3 4:1.1 5:-0.2 
-0.6666660000000002 0 1:99 2:13 3:3.6 4:0.7 5:-0.1 
-0.4453900650253388 0 1:89 2:21.8 3:7.1 4:0.7 5:-0.1 
-0.6666660000000002 0 1:68 2:14.7 3:7.8 4:0.6 5:-0.2 
-0.3770120027608722 0 1:97 2:14.2 3:3.6 4:1.5 5:0.3 
-0.6666660000000002 0 1:84 2:18.5 3:4.4 4:1.1 5:-0.3 
-0.6666660000000002 0 1:98 2:16.7 3:4.3 4:1.7 5:0.2 
-0.6666660000000002 0 1:94 2:20.5 3:1.8 4:1.4 5:-0.5 
-0.6666660000000002 0 1:76 2:25.3 3:4.5 4:1.2 5:-0.1 
-0.6666660000000002 0 1:110 2:15.2 3:1.9 4:0.7 5:-0.2 
-0.6666660000000002 0 1:144 2:22.3 3:3.3 4:1.3 5:0.6 
-0.6666660000000002 0 1:105 2:12 3:3.3 4:1.1 5:0 
-0.6666660000000002 0 1:88 2:16.5 3:4.9 4:0.8 5:0.1 
-0.6666660000000002 0 1:97 2:15.1 3:1.8 4:1.2 5:-0.2 
-0.6666660000000002 0 1:106 2:13.4 3:3 4:1.1 5:0 
-0.6666660000000002 0 1:79 2:19 3:5.5 4:0.9 5:0.3 
-0.9976695200525741 0 1:125 2:2.3 3:0.9 4:16.5 5:9.5 
-0.9916749354648758 0 1:120 2:6.8 3:2.1 4:10.4 5:38.6 
-1.678041789429809 0 1:108 2:3.5 3:0.6 4:1.7 5:1.4 
-0.9572560272683732 0 1:129 2:1.5 3:0.6 4:12.5 5:2.9 
-1.002315539796024 0 1:118 2:3.6 3:1.5 4:11.6 5:48.8 
-1.005620152946211 0 1:120 2:1.9 3:0.7 4:18.5 5:24 
-1.006369049202868 0 1:119 2:0.8 3:0.7 4:56.4 5:21.6 
-0.9947761310289422 0 1:123 2:5.6 3:1.1 4:13.7 5:56.3 
-1.013965201464588 0 1:115 2:6.3 3:1.2 4:4.7 5:14.4 
-0.9970355700618566 0 1:126 2:0.5 3:0.2 4:12.2 5:8.8 
-0.9907813463978185 0 1:121 2:4.7 3:1.8 4:11.2 5:53 
-0.9481986455365287 0 1:131 2:2.7 3:0.8 4:9.9 5:4.7 
-0.9861704605689777 0 1:134 2:2 3:0.5 4:12.2 5:2.2 
-1.000584744696744 0 1:141 2:2.5 3:1.3 4:8.5 5:7.5 
-1.004920030567063 0 1:113 2:5.1 3:0.7 4:5.8 5:19.6 
-1.005887918345053 0 1:136 2:1.4 3:0.3 4:32.6 5:8.4 
-1.00576996502576 0 1:120 2:3.4 3:1.8 4:7.5 5:21.5 
-1.005685837828278 0 1:125 2:3.7 3:1.1 4:8.5 5:25.9 
-1.006264278977841 0 1:112 2:2.6 3:0.7 4:41 5:19 
-1.006063954866154 0 1:134 2:1.9 3:0.6 4:18.4 5:8.2 
-0.9918477078006404 0 1:119 2:5.1 3:1.1 4:7 5:40.8 
-1.001135187150544 0 1:139 2:4.2 3:0.7 4:4.3 5:6.3 
-1.623824772658425 0 1:103 2:5.1 3:1.4 4:1.2 5:5 
-1.097062783782282 0 1:102 2:5.3 3:1.4 4:1.3 5:6.7 
