svm_type csovo_svc
kernel_type rbf
gamma 0.2
nr_class 3
total_sv 146
rho -0.388387 -0.440266 0.0273857
label 1 2 3
nr_sv 94 28 24
SV
0 0.05283344690771846 1:107 2:10.1 3:2.2 4:0.9 5:2.7 
0.430904770996411 0.3945587290261844 1:113 2:9.9 3:3.1 4:2 5:5.9 
0.5925852233752364 0.5423123304115121 1:127 2:12.9 3:2.4 4:1.4 5:0.6 
0 0.2463155926963874 1:107 2:13 3:1.1 4:0.9 5:3.1 
0.4858838240742522 0.8246545295337128 1:106 2:4.2 3:1.2 4:1.6 5:1.4 
0 0.01235010349773692 1:110 2:11.3 3:2.3 4:0.9 5:3.3 
0.404309731862339 0.3716105235819294 1:112 2:8.1 3:1.9 4:3.7 5:2 
0.1720693227227329 0.1582393083826618 1:122 2:9.7 3:1.6 4:0.9 5:2.2 
0.09090342173112327 0.06972810359335692 1:109 2:8.4 3:2.1 4:1.1 5:3.6 
0.01053297327020239 0 1:111 2:8.4 3:1.5 4:0.8 5:1.2 
0.04755414961435576 0.04487631847281542 1:119 2:10.6 3:2.1 4:1.3 5:1.1 
0.1874986907067035 0.1726926985212432 1:115 2:7.1 3:1.3 4:1.3 5:2 
0.07003915672762277 0.09170111697193239 1:101 2:7.8 3:1.2 4:1 5:1.7 
0.4243600749456367 0.315047788608329 1:103 2:10.1 3:1.3 4:0.7 5:0.1 
0.2621032619322295 0.3045987617982935 1:109 2:10.4 3:1.9 4:0.4 5:-0.1 
0.1162328292029767 0.001541334434253665 1:102 2:7.6 3:1.8 4:2 5:2.5 
0.3750677727972736 0.3425967350284035 1:121 2:10.1 3:1.7 4:1.3 5:0.1 
0.2922504118781856 0.2469559689616598 1:100 2:6.1 3:2.4 4:1.8 5:3.8 
0.2308876271794344 0.2102541907663818 1:116 2:10.1 3:2.2 4:1.6 5:0.8 
0.119944023997511 0.109485246430661 1:120 2:8.4 3:1.1 4:1.4 5:1.4 
0.2457036032026952 0.2273516547769422 1:110 2:7.8 3:1.9 4:2.1 5:6.4 
0.0500070421719779 0.04711592669862771 1:117 2:12.2 3:1.9 4:1.2 5:3.9 
0 0.08179042062055508 1:106 2:9.4 3:1.5 4:0.8 5:0.5 
0.3105988180646131 0.2841521506378596 1:130 2:9.5 3:1.7 4:0.4 5:3.2 
0.4726003408301556 0.368928857726774 1:100 2:10.5 3:2.4 4:0.9 5:1.9 
0.09116888855095398 0.08222552090420822 1:121 2:10.1 3:2.4 4:0.8 5:3 
0.1651593036526693 0.1343188637882784 1:110 2:9.2 3:1.6 4:1.5 5:0.3 
0.5041662488290568 0.4615263143786455 1:123 2:8.1 3:2.3 4:1 5:5.1 
0.06725683166041856 0.03608332621854975 1:107 2:8.4 3:1.8 4:1.5 5:0.8 
0.3075303568811387 0.26628113434015 1:109 2:10 3:1.3 4:1.8 5:4.3 
0.2342618241220852 0.214382183649354 1:120 2:6.8 3:1.9 4:1.3 5:1.9 
0.2293988817105806 0.2075063447081966 1:100 2:9.5 3:2.5 4:1.3 5:-0.2 
0.6114835793190283 0.5690165095814375 1:118 2:8.1 3:1.9 4:1.5 5:13.7 
0.5127664575646278 0.4478336191541473 1:103 2:12.2 3:1.2 4:1.3 5:2.7 
0.1097258479568782 0.09922389184009556 1:115 2:8.1 3:1.7 4:0.6 5:2.2 
0.016294661176648 0.01539293516659211 1:119 2:8 3:2 4:0.6 5:3.2 
0.2100263413913402 0.2309306388901449 1:106 2:9.4 3:1.7 4:0.9 5:3.1 
0.5581476446536494 0.4938540543032417 1:93 2:8.9 3:1.5 4:0.8 5:2.7 
0.8357370188832769 0.09189681296444843 1:106 2:11.3 3:1.8 4:0.9 5:1 
0.110579827226406 0.09191550769440224 1:101 2:7.1 3:2.2 4:0.8 5:2.2 
0.3479914600620898 0.318562757212181 1:117 2:9.2 3:1.9 4:1.5 5:6.8 
0.1589527936689695 0 1:106 2:6.7 3:1.5 4:1.2 5:3.9 
0.2028998758490965 0.1853976600810305 1:118 2:10.5 3:2.1 4:0.7 5:3.5 
0.1012831749054418 0.09295147728325685 1:113 2:11.1 3:1.7 4:0.8 5:2.3 
0.2174601896289624 0.7924698700030357 1:104 2:6.3 3:2 4:1.2 5:4 
0.5751937222077858 0.5262989745601624 1:133 2:9.7 3:2.9 4:0.8 5:1.9 
0.1920516920155546 0.1758359219085559 1:126 2:9.4 3:2.3 4:1 5:4 
0.1383758692186295 0.1321295313346886 1:113 2:8.5 3:1.8 4:0.8 5:0.5 
0.4068396558674781 0.3729249792609819 1:119 2:12.9 3:1.5 4:1.3 5:3.6 
0.4511413513547103 0.4129499473589429 1:117 2:6.7 3:2.2 4:1.8 5:6.7 
0.5908555798060753 0.5305722899406009 1:115 2:15.3 3:2.3 4:2 5:2 
0.5382429474383066 0.4947309789988947 1:91 2:8 3:1.7 4:2.1 5:4.6 
0.02194360609634826 0.05840704238299141 1:103 2:8.5 3:1.8 4:1.9 5:1.1 
0.1683605737247992 0.2363366565442764 1:98 2:9.1 3:1.4 4:1.9 5:-0.3 
0.2725894651603535 0.2753598627033539 1:107 2:13 3:1.5 4:2.8 5:1.7 
0.2160571681413949 0.1969790759561138 1:119 2:11.4 3:2.3 4:2.2 5:1.6 
0.3963232920895525 0.3628323990149412 1:122 2:11.8 3:2.7 4:1.7 5:2.3 
0.4125350186673019 0.36420976436498 1:105 2:8.1 3:2 4:1.9 5:-0.5 
0.3079143826581171 0.281739616104204 1:112 2:5.9 3:1.7 4:2 5:1.3 
0.553649727459842 0.469280463203967 1:98 2:8.6 3:1.6 4:1.6 5:6 
0.4473546457453186 0.2704118651334816 1:109 2:12.4 3:2.3 4:1.7 5:0.8 
0.3378294976212991 0.3089928558294921 1:114 2:11.1 3:2.4 4:2 5:-0.3 
0.3697258844055968 0.3383974093620199 1:120 2:7.1 3:1.2 4:1.5 5:4.3 
0.1333248658251233 0.1249761658121259 1:108 2:8.7 3:1.2 4:2.2 5:2.5 
0.2232001622796439 0.2059962100366098 1:116 2:11.9 3:1.8 4:1.9 5:1.5 
0.1959714546690396 0.1804130212831199 1:113 2:11.5 3:1.5 4:1.9 5:2.9 
0.3540788177164337 0.2656670854594461 1:105 2:7 3:1.5 4:2.7 5:4.3 
0.1321718681846194 0.1192623304471399 1:114 2:8.1 3:1.6 4:1.6 5:0.5 
0 0.09684533213027635 1:105 2:11.1 3:1.1 4:0.8 5:1.2 
0.5835836516634783 0.1709155875476353 1:107 2:13.8 3:1.5 4:1 5:1.9 
0.2832274877031393 0.2580636237538897 1:116 2:11.5 3:1.8 4:1.4 5:5.4 
0.2758378850923329 0.2576417166594332 1:110 2:7 3:1 4:1.6 5:4.3 
0.08512634354101239 0.07255059676001316 1:112 2:6.8 3:1.7 4:1.4 5:3.3 
0.02645194673218974 0.02893753242951584 1:111 2:8.5 3:1.6 4:1.1 5:3.9 
0.432376569918978 0.394672270019904 1:111 2:8.5 3:1.6 4:1.2 5:7.7 
0.5756773538325796 0.3223394519526337 1:98 2:10.4 3:1.6 4:2.3 5:-0.7 
0.1870165115098575 0.1710752493946787 1:117 2:7.8 3:2 4:1 5:3.9 
0.2437564678347124 0.2231365567078138 1:115 2:10.6 3:0.8 4:2.1 5:4.6 
0.3751692101841011 0.3429892025887656 1:130 2:10 3:1.6 4:0.9 5:4.6 
0.4389960428032952 1 1:101 2:6.7 3:1.3 4:1 5:5.7 
0.2973723001267899 0.3090743440274255 1:110 2:6.3 3:1 4:0.8 5:1 
0.2644463120925052 0.2376653479384742 1:112 2:10.6 3:1.6 4:0.9 5:-0.1 
0.3532231921354317 0.3229700666798035 1:118 2:6.5 3:1.2 4:1.2 5:1.7 
0 0.002895356179385069 1:109 2:9.2 3:1.8 4:1.1 5:4.4 
0.5538867716553182 0.5064342767242043 1:127 2:7.7 3:1.8 4:1.9 5:6.4 
0.2370700494852883 0.3095948336724698 1:108 2:6.5 3:1 4:0.9 5:1.5 
0.003367730684538495 0 1:105 2:5.7 3:1 4:0.9 5:0.9 
0.5295618682287041 0.4779875264717032 1:98 2:5.7 3:0.4 4:1.3 5:2.8 
0.02419409649346984 0.0206618604381258 1:118 2:12.2 3:1.5 4:1 5:2.3 
0.3842440678578258 0.3515625059791589 1:126 2:10.4 3:1.7 4:1.2 5:3.5 
0.3266237558263033 0.2996471078338962 1:114 2:7.5 3:1.1 4:1.6 5:4.4 
0.4006959857442884 0.3605979599056886 1:111 2:11.9 3:2.3 4:0.9 5:3.8 
0.2932721330700779 0.165292397869122 1:104 2:6.1 3:1.8 4:0.5 5:0.8 
0.214976019555717 0.2382835890875654 1:102 2:6.6 3:1.2 4:1.4 5:1.3 
-1 1 1:139 2:16.4 3:3.8 4:1.1 5:-0.2 
-0.741888282536063 0.5972038796521051 1:111 2:16 3:2.1 4:0.9 5:-0.1 
-1 1 1:65 2:25.3 3:5.8 4:1.3 5:0.2 
-0.8323858758647477 0.6148197642799806 1:88 2:24.1 3:5.5 4:0.8 5:0.1 
-1 1 1:65 2:18.2 3:10 4:1.3 5:0.1 
-1 1 1:134 2:16.4 3:4.8 4:0.6 5:0.1 
-1 1 1:110 2:20.3 3:3.7 4:0.6 5:0.2 
-1 0.9908192127998086 1:95 2:11.1 3:2.7 4:1.6 5:-0.3 
-0.7580317642622491 0.5041312766191407 1:89 2:14.3 3:4.1 4:0.5 5:0.2 
-0.5625977161870165 0.4202636771177636 1:89 2:23.8 3:5.4 4:0.5 5:0.1 
-1 0.8227992916837601 1:88 2:12.9 3:2.7 4:0.1 5:0.2 
-1 1 1:105 2:17.4 3:1.6 4:0.3 5:0.4 
-1 0.7714929396629683 1:89 2:20.1 3:7.3 4:1.1 5:-0.2 
-1 0.8397888168528891 1:99 2:13 3:3.6 4:0.7 5:-0.1 
-0.5695167057971312 0.4029599653770193 1:89 2:21.8 3:7.1 4:0.7 5:-0.1 
-1 1 1:68 2:14.7 3:7.8 4:0.6 5:-0.2 
-0.4473857257082325 0.2586154639842005 1:97 2:14.2 3:3.6 4:1.5 5:0.3 
-1 1 1:84 2:18.5 3:4.4 4:1.1 5:-0.3 
-1 0.8468748231408008 1:98 2:16.7 3:4.3 4:1.7 5:0.2 
-1 1 1:94 2:20.5 3:1.8 4:1.4 5:-0.5 
-1 1 1:76 2:25.3 3:4.5 4:1.2 5:-0.1 
-0.9286178644930414 0.5896145097470874 1:110 2:15.2 3:1.9 4:0.7 5:-0.2 
-1 1 1:144 2:22.3 3:3.3 4:1.3 5:0.6 
-1 0.6853500587552293 1:105 2:12 3:3.3 4:1.1 5:0 
-1 0.8392531818937913 1:88 2:16.5 3:4.9 4:0.8 5:0.1 
-0.9697893462537639 0.7174530504825034 1:97 2:15.1 3:1.8 4:1.2 5:-0.2 
-1 0.6256356204196017 1:106 2:13.4 3:3 4:1.1 5:0 
-1 1 1:79 2:19 3:5.5 4:0.9 5:0.3 
-1 -0.9637514018407146 1:125 2:2.3 3:0.9 4:16.5 5:9.5 
-1 -0.9591218762740268 1:120 2:6.8 3:2.1 4:10.4 5:38.6 
-1 -0.9723824423552803 1:108 2:3.5 3:0.6 4:1.7 5:1.4 
-1 -0.9255033397009195 1:129 2:1.5 3:0.6 4:12.5 5:2.9 
-1 -0.9692394631510033 1:118 2:3.6 3:1.5 4:11.6 5:48.8 
-1 -0.9727579487682776 1:120 2:1.9 3:0.7 4:18.5 5:24 
-1 -0.9730233933725372 1:119 2:0.8 3:0.7 4:56.4 5:21.6 
-1 -0.9616668574384479 1:123 2:5.6 3:1.1 4:13.7 5:56.3 
-1 -0.9713805169083166 1:115 2:6.3 3:1.2 4:4.7 5:14.4 
-1 -0.9639554414712481 1:126 2:0.5 3:0.2 4:12.2 5:8.8 
-1 -0.9581509282919339 1:121 2:4.7 3:1.8 4:11.2 5:53 
-1 -0.9165951611297598 1:131 2:2.7 3:0.8 4:9.9 5:4.7 
-1 -0.9540625016590355 1:134 2:2 3:0.5 4:12.2 5:2.2 
-1 -0.9675713210027866 1:141 2:2.5 3:1.3 4:8.5 5:7.5 
-1 -0.9713592600835599 1:113 2:5.1 3:0.7 4:5.8 5:19.6 
-1 -0.9724573906203278 1:136 2:1.4 3:0.3 4:32.6 5:8.4 
-1 -0.9723770199475177 1:120 2:3.4 3:1.8 4:7.5 5:21.5 
-1 -0.9723578784224542 1:125 2:3.7 3:1.1 4:8.5 5:25.9 
-1 -0.9727579487759037 1:112 2:2.6 3:0.7 4:41 5:19 
-1 -0.9727143682181031 1:134 2:1.9 3:0.6 4:18.4 5:8.2 
-1 -0.959457858044433 1:119 2:5.1 3:1.1 4:7 5:40.8 
-1 -0.9674498391398684 1:139 2:4.2 3:0.7 4:4.3 5:6.3 
-1 -0.668516505955233 1:103 2:5.1 3:1.4 4:1.2 5:5 
-1 -0.6684648698969614 1:102 2:5.3 3:1.4 4:1.3 5:6.7 
